{"train_loss": 0.24016469717025757, "epoch": 3, "trainer/global_step": 109, "_timestamp": 1681289324.6138282, "_runtime": 129.25276112556458, "_step": 13, "val_loss": 0.4671982228755951, "gradients/encoder.fc.weight": {"_type": "histogram", "values": [1.0, 0.0, 2.0, 2.0, 8.0, 7.0, 7.0, 13.0, 11.0, 10.0, 23.0, 19.0, 26.0, 39.0, 64.0, 107.0, 140.0, 196.0, 267.0, 384.0, 523.0, 743.0, 913.0, 1132.0, 1366.0, 1751.0, 2017.0, 2482.0, 2915.0, 3539.0, 4234.0, 4808.0, 5465.0, 5513.0, 4858.0, 3782.0, 3181.0, 2531.0, 2128.0, 1804.0, 1581.0, 1281.0, 1042.0, 866.0, 680.0, 618.0, 455.0, 412.0, 406.0, 323.0, 232.0, 154.0, 148.0, 112.0, 66.0, 52.0, 37.0, 21.0, 18.0, 12.0, 5.0, 1.0, 1.0, 2.0], "bins": [-1572.0, -1524.3125, -1476.625, -1428.9375, -1381.25, -1333.5625, -1285.875, -1238.1875, -1190.5, -1142.8125, -1095.125, -1047.4375, -999.75, -952.0625, -904.375, -856.6875, -809.0, -761.3125, -713.625, -665.9375, -618.25, -570.5625, -522.875, -475.1875, -427.5, -379.8125, -332.125, -284.4375, -236.75, -189.0625, -141.375, -93.6875, -46.0, 1.6875, 49.375, 97.0625, 144.75, 192.4375, 240.125, 287.8125, 335.5, 383.1875, 430.875, 478.5625, 526.25, 573.9375, 621.625, 669.3125, 717.0, 764.6875, 812.375, 860.0625, 907.75, 955.4375, 1003.125, 1050.8125, 1098.5, 1146.1875, 1193.875, 1241.5625, 1289.25, 1336.9375, 1384.625, 1432.3125, 1480.0]}, "gradients/encoder.fc.bias": {"_type": "histogram", "values": [6.0, 0.0, 0.0, 0.0, 0.0, 0.0, 0.0, 0.0, 0.0, 0.0, 0.0, 0.0, 0.0, 0.0, 0.0, 0.0, 14.0, 0.0, 2.0, 0.0, 0.0, 0.0, 1.0, 0.0, 13.0, 0.0, 0.0, 0.0, 5.0, 0.0, 3.0, 2.0, 49.0, 0.0, 1.0, 0.0, 6.0, 0.0, 1.0, 0.0, 7.0, 0.0, 0.0, 0.0, 1.0, 0.0, 0.0, 0.0, 13.0, 0.0, 0.0, 0.0, 2.0, 0.0, 0.0, 0.0, 0.0, 0.0, 0.0, 0.0, 0.0, 0.0, 0.0, 2.0], "bins": [-0.5, -0.484375, -0.46875, -0.453125, -0.4375, -0.421875, -0.40625, -0.390625, -0.375, -0.359375, -0.34375, -0.328125, -0.3125, -0.296875, -0.28125, -0.265625, -0.25, -0.234375, -0.21875, -0.203125, -0.1875, -0.171875, -0.15625, -0.140625, -0.125, -0.109375, -0.09375, -0.078125, -0.0625, -0.046875, -0.03125, -0.015625, 0.0, 0.015625, 0.03125, 0.046875, 0.0625, 0.078125, 0.09375, 0.109375, 0.125, 0.140625, 0.15625, 0.171875, 0.1875, 0.203125, 0.21875, 0.234375, 0.25, 0.265625, 0.28125, 0.296875, 0.3125, 0.328125, 0.34375, 0.359375, 0.375, 0.390625, 0.40625, 0.421875, 0.4375, 0.453125, 0.46875, 0.484375, 0.5]}, "gradients/encoder.sequential.10.1.weight": {"_type": "histogram", "values": [2.0, 1.0, 2.0, 0.0, 1.0, 2.0, 1.0, 0.0, 0.0, 1.0, 4.0, 5.0, 1.0, 7.0, 7.0, 7.0, 5.0, 8.0, 15.0, 12.0, 14.0, 24.0, 24.0, 25.0, 35.0, 31.0, 33.0, 29.0, 26.0, 21.0, 32.0, 16.0, 17.0, 11.0, 15.0, 10.0, 10.0, 9.0, 7.0, 5.0, 6.0, 6.0, 2.0, 2.0, 6.0, 2.0, 2.0, 3.0, 0.0, 2.0, 0.0, 1.0, 0.0, 0.0, 0.0, 1.0, 1.0, 0.0, 0.0, 0.0, 0.0, 1.0, 1.0, 1.0], "bins": [-319.99951171875, -308.1279296875, -296.2563171386719, -284.3847351074219, -272.51312255859375, -260.64154052734375, -248.7699432373047, -236.89834594726562, -225.02676391601562, -213.15516662597656, -201.2835693359375, -189.4119873046875, -177.54039001464844, -165.66879272460938, -153.7971954345703, -141.92559814453125, -130.0540008544922, -118.18240356445312, -106.3108139038086, -94.43921661376953, -82.567626953125, -70.69602966308594, -58.824432373046875, -46.952842712402344, -35.08124542236328, -23.209651947021484, -11.338056564331055, 0.533538818359375, 12.405132293701172, 24.27672576904297, 36.14832305908203, 48.01991271972656, 59.891510009765625, 71.76310729980469, 83.63469696044922, 95.50629425048828, 107.37788391113281, 119.24948120117188, 131.12107849121094, 142.99267578125, 154.8642578125, 166.73585510253906, 178.60745239257812, 190.47903442382812, 202.3506317138672, 214.22222900390625, 226.0938262939453, 237.96542358398438, 249.83702087402344, 261.7086181640625, 273.5802001953125, 285.4518127441406, 297.3233947753906, 309.19500732421875, 321.06658935546875, 332.93817138671875, 344.8097839355469, 356.6813659667969, 368.552978515625, 380.424560546875, 392.2961730957031, 404.1677551269531, 416.03936767578125, 427.91094970703125, 439.78253173828125]}, "gradients/encoder.sequential.10.1.bias": {"_type": "histogram", "values": [1.0, 0.0, 0.0, 0.0, 0.0, 0.0, 1.0, 0.0, 0.0, 0.0, 1.0, 0.0, 3.0, 2.0, 1.0, 2.0, 1.0, 3.0, 3.0, 8.0, 7.0, 7.0, 11.0, 8.0, 13.0, 16.0, 8.0, 23.0, 23.0, 21.0, 33.0, 27.0, 39.0, 26.0, 31.0, 29.0, 17.0, 23.0, 23.0, 15.0, 11.0, 11.0, 8.0, 11.0, 9.0, 4.0, 9.0, 3.0, 1.0, 2.0, 2.0, 2.0, 4.0, 0.0, 0.0, 1.0, 3.0, 2.0, 0.0, 2.0, 0.0, 0.0, 0.0, 1.0], "bins": [-324.19921875, -314.4384460449219, -304.67767333984375, -294.9169006347656, -285.1561279296875, -275.3953552246094, -265.63458251953125, -255.87380981445312, -246.113037109375, -236.35226440429688, -226.59149169921875, -216.83071899414062, -207.0699462890625, -197.30917358398438, -187.54840087890625, -177.78762817382812, -168.02685546875, -158.26608276367188, -148.50531005859375, -138.74453735351562, -128.9837646484375, -119.22299194335938, -109.46221923828125, -99.70144653320312, -89.940673828125, -80.17990112304688, -70.41912841796875, -60.658355712890625, -50.8975830078125, -41.136810302734375, -31.37603759765625, -21.615264892578125, -11.8544921875, -2.093719482421875, 7.66705322265625, 17.427825927734375, 27.1885986328125, 36.949371337890625, 46.71014404296875, 56.470916748046875, 66.231689453125, 75.99246215820312, 85.75323486328125, 95.51400756835938, 105.2747802734375, 115.03555297851562, 124.79632568359375, 134.55709838867188, 144.31787109375, 154.07864379882812, 163.83941650390625, 173.60018920898438, 183.3609619140625, 193.12173461914062, 202.88250732421875, 212.64328002929688, 222.404052734375, 232.16482543945312, 241.92559814453125, 251.68637084960938, 261.4471435546875, 271.2079162597656, 280.96868896484375, 290.7294616699219, 300.490234375]}, "gradients/encoder.sequential.10.0.weight": {"_type": "histogram", "values": [1.0, 1.0, 1.0, 2.0, 2.0, 2.0, 12.0, 13.0, 13.0, 18.0, 33.0, 48.0, 74.0, 78.0, 88.0, 153.0, 249.0, 367.0, 571.0, 841.0, 1186.0, 1960.0, 3458.0, 5707.0, 10560.0, 19729.0, 37961.0, 82002.0, 180575.0, 228037.0, 105516.0, 47393.0, 23738.0, 13269.0, 8416.0, 5187.0, 3314.0, 2067.0, 1361.0, 857.0, 522.0, 359.0, 213.0, 125.0, 82.0, 54.0, 44.0, 30.0, 30.0, 28.0, 19.0, 4.0, 11.0, 15.0, 10.0, 10.0, 6.0, 4.0, 2.0, 1.0, 2.0, 0.0, 0.0, 1.0], "bins": [-1214.0, -1172.40625, -1130.8125, -1089.21875, -1047.625, -1006.03125, -964.4375, -922.84375, -881.25, -839.65625, -798.0625, -756.46875, -714.875, -673.28125, -631.6875, -590.09375, -548.5, -506.90625, -465.3125, -423.71875, -382.125, -340.53125, -298.9375, -257.34375, -215.75, -174.15625, -132.5625, -90.96875, -49.375, -7.78125, 33.8125, 75.40625, 117.0, 158.59375, 200.1875, 241.78125, 283.375, 324.96875, 366.5625, 408.15625, 449.75, 491.34375, 532.9375, 574.53125, 616.125, 657.71875, 699.3125, 740.90625, 782.5, 824.09375, 865.6875, 907.28125, 948.875, 990.46875, 1032.0625, 1073.65625, 1115.25, 1156.84375, 1198.4375, 1240.03125, 1281.625, 1323.21875, 1364.8125, 1406.40625, 1448.0]}, "gradients/encoder.sequential.10.0.bias": {"_type": "histogram", "values": [2.0, 0.0, 2.0, 1.0, 2.0, 3.0, 0.0, 2.0, 0.0, 1.0, 3.0, 3.0, 2.0, 3.0, 3.0, 3.0, 6.0, 11.0, 4.0, 13.0, 18.0, 16.0, 24.0, 22.0, 37.0, 42.0, 31.0, 46.0, 28.0, 38.0, 36.0, 22.0, 17.0, 14.0, 12.0, 9.0, 11.0, 5.0, 3.0, 4.0, 1.0, 3.0, 3.0, 1.0, 0.0, 1.0, 0.0, 1.0, 1.0, 0.0, 1.0, 0.0, 0.0, 0.0, 0.0, 0.0, 0.0, 0.0, 0.0, 0.0, 0.0, 0.0, 0.0, 1.0], "bins": [-0.129638671875, -0.12484359741210938, -0.12004852294921875, -0.11525344848632812, -0.1104583740234375, -0.10566329956054688, -0.10086822509765625, -0.09607315063476562, -0.091278076171875, -0.08648300170898438, -0.08168792724609375, -0.07689285278320312, -0.0720977783203125, -0.06730270385742188, -0.06250762939453125, -0.057712554931640625, -0.05291748046875, -0.048122406005859375, -0.04332733154296875, -0.038532257080078125, -0.0337371826171875, -0.028942108154296875, -0.02414703369140625, -0.019351959228515625, -0.014556884765625, -0.009761810302734375, -0.00496673583984375, -0.000171661376953125, 0.0046234130859375, 0.009418487548828125, 0.01421356201171875, 0.019008636474609375, 0.0238037109375, 0.028598785400390625, 0.03339385986328125, 0.038188934326171875, 0.0429840087890625, 0.047779083251953125, 0.05257415771484375, 0.057369232177734375, 0.062164306640625, 0.06695938110351562, 0.07175445556640625, 0.07654953002929688, 0.0813446044921875, 0.08613967895507812, 0.09093475341796875, 0.09572982788085938, 0.10052490234375, 0.10531997680664062, 0.11011505126953125, 0.11491012573242188, 0.1197052001953125, 0.12450027465820312, 0.12929534912109375, 0.13409042358398438, 0.138885498046875, 0.14368057250976562, 0.14847564697265625, 0.15327072143554688, 0.1580657958984375, 0.16286087036132812, 0.16765594482421875, 0.17245101928710938, 0.17724609375]}, "gradients/encoder.sequential.9.1.weight": {"_type": "histogram", "values": [1.0, 0.0, 0.0, 0.0, 0.0, 0.0, 0.0, 1.0, 3.0, 1.0, 2.0, 0.0, 5.0, 4.0, 1.0, 9.0, 4.0, 2.0, 8.0, 11.0, 7.0, 7.0, 9.0, 11.0, 10.0, 18.0, 13.0, 21.0, 26.0, 22.0, 20.0, 28.0, 23.0, 33.0, 28.0, 23.0, 26.0, 18.0, 12.0, 17.0, 12.0, 9.0, 14.0, 8.0, 5.0, 5.0, 4.0, 5.0, 3.0, 3.0, 1.0, 4.0, 1.0, 2.0, 2.0, 2.0, 1.0, 0.0, 2.0, 1.0, 2.0, 0.0, 1.0, 1.0], "bins": [-200.10678100585938, -193.9107208251953, -187.7146759033203, -181.51861572265625, -175.3225555419922, -169.12649536132812, -162.93045043945312, -156.73439025878906, -150.538330078125, -144.34226989746094, -138.14622497558594, -131.95016479492188, -125.75410461425781, -119.55805206298828, -113.36199951171875, -107.16593933105469, -100.96989440917969, -94.77384185791016, -88.5777816772461, -82.38172912597656, -76.1856689453125, -69.98961639404297, -63.79356384277344, -57.59750747680664, -51.401451110839844, -45.20539474487305, -39.00933837890625, -32.81328582763672, -26.617229461669922, -20.421173095703125, -14.225120544433594, -8.029064178466797, -1.8329925537109375, 4.363062858581543, 10.559118270874023, 16.755172729492188, 22.951229095458984, 29.14728546142578, 35.34333801269531, 41.53939437866211, 47.735450744628906, 53.9315071105957, 60.1275634765625, 66.32361602783203, 72.51966857910156, 78.71572875976562, 84.91178131103516, 91.10783386230469, 97.30389404296875, 103.49994659423828, 109.69600677490234, 115.89205932617188, 122.08811950683594, 128.2841796875, 134.480224609375, 140.67628479003906, 146.87234497070312, 153.0684051513672, 159.2644500732422, 165.46051025390625, 171.6565704345703, 177.85263061523438, 184.04867553710938, 190.24473571777344, 196.44078063964844]}, "gradients/encoder.sequential.9.1.bias": {"_type": "histogram", "values": [1.0, 0.0, 0.0, 0.0, 0.0, 0.0, 0.0, 3.0, 1.0, 2.0, 0.0, 3.0, 1.0, 4.0, 7.0, 4.0, 5.0, 4.0, 10.0, 6.0, 2.0, 11.0, 10.0, 11.0, 13.0, 11.0, 19.0, 21.0, 22.0, 17.0, 20.0, 25.0, 23.0, 33.0, 25.0, 17.0, 14.0, 19.0, 19.0, 15.0, 14.0, 16.0, 16.0, 15.0, 12.0, 6.0, 10.0, 3.0, 4.0, 4.0, 1.0, 5.0, 2.0, 0.0, 0.0, 2.0, 0.0, 1.0, 0.0, 0.0, 1.0, 0.0, 1.0, 1.0], "bins": [-130.71282958984375, -126.75028991699219, -122.78775024414062, -118.82521057128906, -114.8626708984375, -110.90013122558594, -106.9375991821289, -102.97505950927734, -99.01251983642578, -95.04998016357422, -91.08744049072266, -87.1249008178711, -83.16236877441406, -79.1998291015625, -75.23728942871094, -71.27474975585938, -67.31221008300781, -63.34967041015625, -59.38713073730469, -55.42459487915039, -51.46205520629883, -47.499515533447266, -43.53697967529297, -39.574440002441406, -35.611900329589844, -31.64936065673828, -27.68682289123535, -23.724285125732422, -19.76174545288086, -15.799205780029297, -11.836668014526367, -7.8741302490234375, -3.911590576171875, 0.050948143005371094, 4.013486862182617, 7.976025581359863, 11.93856430053711, 15.901103973388672, 19.8636417388916, 23.82617950439453, 27.788719177246094, 31.751258850097656, 35.71379852294922, 39.676334381103516, 43.63887405395508, 47.60141372680664, 51.56394958496094, 55.5264892578125, 59.48902893066406, 63.451568603515625, 67.41410827636719, 71.37664794921875, 75.33918762207031, 79.30172729492188, 83.2642593383789, 87.22679901123047, 91.18933868408203, 95.1518783569336, 99.11441802978516, 103.07695770263672, 107.03948974609375, 111.00202941894531, 114.96456909179688, 118.92710876464844, 122.8896484375]}, "gradients/encoder.sequential.9.0.weight": {"_type": "histogram", "values": [1.0, 2.0, 1.0, 2.0, 6.0, 9.0, 9.0, 13.0, 9.0, 24.0, 25.0, 43.0, 53.0, 97.0, 116.0, 162.0, 188.0, 239.0, 311.0, 449.0, 571.0, 786.0, 1013.0, 1421.0, 2069.0, 2884.0, 3943.0, 5904.0, 8702.0, 14289.0, 24005.0, 41874.0, 72156.0, 79011.0, 48444.0, 28612.0, 17870.0, 11810.0, 7680.0, 5388.0, 3705.0, 2485.0, 1885.0, 1339.0, 966.0, 687.0, 546.0, 363.0, 301.0, 202.0, 141.0, 126.0, 76.0, 52.0, 44.0, 33.0, 17.0, 19.0, 13.0, 12.0, 6.0, 3.0, 2.0, 2.0], "bins": [-1062.0, -1029.9296875, -997.859375, -965.7890625, -933.71875, -901.6484375, -869.578125, -837.5078125, -805.4375, -773.3671875, -741.296875, -709.2265625, -677.15625, -645.0859375, -613.015625, -580.9453125, -548.875, -516.8046875, -484.734375, -452.6640625, -420.59375, -388.5234375, -356.453125, -324.3828125, -292.3125, -260.2421875, -228.171875, -196.1015625, -164.03125, -131.9609375, -99.890625, -67.8203125, -35.75, -3.6796875, 28.390625, 60.4609375, 92.53125, 124.6015625, 156.671875, 188.7421875, 220.8125, 252.8828125, 284.953125, 317.0234375, 349.09375, 381.1640625, 413.234375, 445.3046875, 477.375, 509.4453125, 541.515625, 573.5859375, 605.65625, 637.7265625, 669.796875, 701.8671875, 733.9375, 766.0078125, 798.078125, 830.1484375, 862.21875, 894.2890625, 926.359375, 958.4296875, 990.5]}, "gradients/encoder.sequential.9.0.bias": {"_type": "histogram", "values": [2.0, 0.0, 2.0, 0.0, 0.0, 0.0, 3.0, 3.0, 3.0, 2.0, 4.0, 3.0, 2.0, 2.0, 1.0, 3.0, 7.0, 12.0, 6.0, 9.0, 13.0, 12.0, 16.0, 12.0, 15.0, 29.0, 28.0, 31.0, 20.0, 35.0, 32.0, 29.0, 20.0, 21.0, 18.0, 19.0, 19.0, 15.0, 11.0, 12.0, 6.0, 6.0, 3.0, 4.0, 3.0, 4.0, 1.0, 2.0, 3.0, 3.0, 0.0, 1.0, 1.0, 0.0, 0.0, 0.0, 2.0, 0.0, 0.0, 0.0, 0.0, 0.0, 1.0, 1.0], "bins": [-0.12744140625, -0.12311935424804688, -0.11879730224609375, -0.11447525024414062, -0.1101531982421875, -0.10583114624023438, -0.10150909423828125, -0.09718704223632812, -0.092864990234375, -0.08854293823242188, -0.08422088623046875, -0.07989883422851562, -0.0755767822265625, -0.07125473022460938, -0.06693267822265625, -0.06261062622070312, -0.05828857421875, -0.053966522216796875, -0.04964447021484375, -0.045322418212890625, -0.0410003662109375, -0.036678314208984375, -0.03235626220703125, -0.028034210205078125, -0.023712158203125, -0.019390106201171875, -0.01506805419921875, -0.010746002197265625, -0.0064239501953125, -0.002101898193359375, 0.00222015380859375, 0.006542205810546875, 0.0108642578125, 0.015186309814453125, 0.01950836181640625, 0.023830413818359375, 0.0281524658203125, 0.032474517822265625, 0.03679656982421875, 0.041118621826171875, 0.045440673828125, 0.049762725830078125, 0.05408477783203125, 0.058406829833984375, 0.0627288818359375, 0.06705093383789062, 0.07137298583984375, 0.07569503784179688, 0.08001708984375, 0.08433914184570312, 0.08866119384765625, 0.09298324584960938, 0.0973052978515625, 0.10162734985351562, 0.10594940185546875, 0.11027145385742188, 0.114593505859375, 0.11891555786132812, 0.12323760986328125, 0.12755966186523438, 0.1318817138671875, 0.13620376586914062, 0.14052581787109375, 0.14484786987304688, 0.149169921875]}, "gradients/encoder.sequential.8.1.weight": {"_type": "histogram", "values": [1.0, 0.0, 0.0, 0.0, 1.0, 0.0, 1.0, 2.0, 0.0, 0.0, 2.0, 3.0, 1.0, 2.0, 1.0, 3.0, 1.0, 1.0, 0.0, 1.0, 5.0, 4.0, 1.0, 4.0, 4.0, 7.0, 7.0, 17.0, 16.0, 21.0, 20.0, 11.0, 14.0, 11.0, 18.0, 9.0, 9.0, 6.0, 10.0, 11.0, 3.0, 5.0, 2.0, 2.0, 4.0, 5.0, 3.0, 1.0, 1.0, 0.0, 1.0, 1.0, 0.0, 1.0, 1.0, 0.0, 0.0, 0.0, 0.0, 0.0, 0.0, 0.0, 0.0, 1.0], "bins": [-343.5203552246094, -332.61669921875, -321.7130126953125, -310.8093566894531, -299.90570068359375, -289.0020446777344, -278.098388671875, -267.1947021484375, -256.2910461425781, -245.38739013671875, -234.4837188720703, -223.58004760742188, -212.6763916015625, -201.77273559570312, -190.8690643310547, -179.96539306640625, -169.06173706054688, -158.1580810546875, -147.25440979003906, -136.35073852539062, -125.44708251953125, -114.54341888427734, -103.63975524902344, -92.73609161376953, -81.83242797851562, -70.92876434326172, -60.02510070800781, -49.121437072753906, -38.2177734375, -27.314109802246094, -16.410446166992188, -5.506782531738281, 5.39691162109375, 16.300575256347656, 27.204238891601562, 38.10790252685547, 49.011566162109375, 59.91522979736328, 70.81889343261719, 81.7225570678711, 92.626220703125, 103.5298843383789, 114.43354797363281, 125.33721160888672, 136.24087524414062, 147.14453125, 158.04820251464844, 168.95187377929688, 179.85552978515625, 190.75918579101562, 201.66285705566406, 212.5665283203125, 223.47018432617188, 234.37384033203125, 245.2775115966797, 256.1811828613281, 267.0848388671875, 277.9884948730469, 288.89215087890625, 299.79583740234375, 310.6994934082031, 321.6031494140625, 332.5068359375, 343.4104919433594, 354.31414794921875]}, "gradients/encoder.sequential.8.1.bias": {"_type": "histogram", "values": [1.0, 0.0, 0.0, 0.0, 0.0, 1.0, 1.0, 0.0, 0.0, 1.0, 4.0, 1.0, 1.0, 1.0, 5.0, 3.0, 4.0, 4.0, 7.0, 2.0, 2.0, 3.0, 4.0, 5.0, 7.0, 8.0, 7.0, 7.0, 9.0, 8.0, 5.0, 8.0, 9.0, 4.0, 4.0, 8.0, 9.0, 8.0, 10.0, 12.0, 7.0, 5.0, 5.0, 9.0, 6.0, 7.0, 6.0, 5.0, 6.0, 7.0, 8.0, 1.0, 1.0, 0.0, 2.0, 2.0, 1.0, 1.0, 2.0, 0.0, 0.0, 0.0, 0.0, 2.0], "bins": [-159.77157592773438, -155.11424255371094, -150.45692443847656, -145.79959106445312, -141.1422576904297, -136.48492431640625, -131.82760620117188, -127.17027282714844, -122.51294708251953, -117.85562133789062, -113.19828796386719, -108.54096221923828, -103.88363647460938, -99.22630310058594, -94.56897735595703, -89.91165161132812, -85.25431823730469, -80.59699249267578, -75.93965911865234, -71.28233337402344, -66.625, -61.967674255371094, -57.31034851074219, -52.653018951416016, -47.995689392089844, -43.33835983276367, -38.6810302734375, -34.023704528808594, -29.366374969482422, -24.70904541015625, -20.05171775817871, -15.394390106201172, -10.737060546875, -6.0797319412231445, -1.422403335571289, 3.2349252700805664, 7.892253875732422, 12.549583435058594, 17.206911087036133, 21.864238739013672, 26.521568298339844, 31.178897857666016, 35.83622741699219, 40.493553161621094, 45.150882720947266, 49.80821228027344, 54.465538024902344, 59.122867584228516, 63.78019714355469, 68.4375228881836, 73.09485626220703, 77.75218200683594, 82.40951538085938, 87.06684112548828, 91.72416687011719, 96.38150024414062, 101.03882598876953, 105.69615173339844, 110.35348510742188, 115.01081085205078, 119.66813659667969, 124.32546997070312, 128.98280334472656, 133.64012145996094, 138.29745483398438]}, "gradients/encoder.sequential.8.0.weight": {"_type": "histogram", "values": [1.0, 0.0, 1.0, 3.0, 2.0, 1.0, 6.0, 7.0, 7.0, 18.0, 19.0, 28.0, 33.0, 42.0, 59.0, 72.0, 96.0, 159.0, 175.0, 203.0, 226.0, 347.0, 410.0, 531.0, 776.0, 1120.0, 1661.0, 2364.0, 3411.0, 5499.0, 9203.0, 16850.0, 32989.0, 48012.0, 29741.0, 15538.0, 9099.0, 5625.0, 3753.0, 2560.0, 1813.0, 1245.0, 889.0, 662.0, 444.0, 294.0, 204.0, 137.0, 87.0, 56.0, 45.0, 26.0, 14.0, 15.0, 11.0, 8.0, 5.0, 1.0, 1.0, 1.0, 1.0, 0.0, 1.0, 1.0], "bins": [-1902.0, -1845.078125, -1788.15625, -1731.234375, -1674.3125, -1617.390625, -1560.46875, -1503.546875, -1446.625, -1389.703125, -1332.78125, -1275.859375, -1218.9375, -1162.015625, -1105.09375, -1048.171875, -991.25, -934.328125, -877.40625, -820.484375, -763.5625, -706.640625, -649.71875, -592.796875, -535.875, -478.953125, -422.03125, -365.109375, -308.1875, -251.265625, -194.34375, -137.421875, -80.5, -23.578125, 33.34375, 90.265625, 147.1875, 204.109375, 261.03125, 317.953125, 374.875, 431.796875, 488.71875, 545.640625, 602.5625, 659.484375, 716.40625, 773.328125, 830.25, 887.171875, 944.09375, 1001.015625, 1057.9375, 1114.859375, 1171.78125, 1228.703125, 1285.625, 1342.546875, 1399.46875, 1456.390625, 1513.3125, 1570.234375, 1627.15625, 1684.078125, 1741.0]}, "gradients/encoder.sequential.8.0.bias": {"_type": "histogram", "values": [1.0, 0.0, 0.0, 0.0, 0.0, 0.0, 1.0, 0.0, 0.0, 0.0, 0.0, 0.0, 0.0, 0.0, 0.0, 0.0, 0.0, 0.0, 0.0, 0.0, 0.0, 1.0, 0.0, 0.0, 1.0, 2.0, 3.0, 4.0, 4.0, 6.0, 6.0, 8.0, 12.0, 15.0, 10.0, 13.0, 14.0, 19.0, 21.0, 14.0, 20.0, 10.0, 15.0, 11.0, 8.0, 8.0, 5.0, 5.0, 3.0, 1.0, 4.0, 2.0, 0.0, 2.0, 1.0, 1.0, 1.0, 0.0, 1.0, 1.0, 0.0, 1.0, 0.0, 1.0], "bins": [-0.3125, -0.304473876953125, -0.29644775390625, -0.288421630859375, -0.2803955078125, -0.272369384765625, -0.26434326171875, -0.256317138671875, -0.248291015625, -0.240264892578125, -0.23223876953125, -0.224212646484375, -0.2161865234375, -0.208160400390625, -0.20013427734375, -0.192108154296875, -0.18408203125, -0.176055908203125, -0.16802978515625, -0.160003662109375, -0.1519775390625, -0.143951416015625, -0.13592529296875, -0.127899169921875, -0.119873046875, -0.111846923828125, -0.10382080078125, -0.095794677734375, -0.0877685546875, -0.079742431640625, -0.07171630859375, -0.063690185546875, -0.0556640625, -0.047637939453125, -0.03961181640625, -0.031585693359375, -0.0235595703125, -0.015533447265625, -0.00750732421875, 0.000518798828125, 0.008544921875, 0.016571044921875, 0.02459716796875, 0.032623291015625, 0.0406494140625, 0.048675537109375, 0.05670166015625, 0.064727783203125, 0.07275390625, 0.080780029296875, 0.08880615234375, 0.096832275390625, 0.1048583984375, 0.112884521484375, 0.12091064453125, 0.128936767578125, 0.136962890625, 0.144989013671875, 0.15301513671875, 0.161041259765625, 0.1690673828125, 0.177093505859375, 0.18511962890625, 0.193145751953125, 0.201171875]}, "gradients/encoder.sequential.7.1.weight": {"_type": "histogram", "values": [2.0, 0.0, 0.0, 1.0, 1.0, 0.0, 1.0, 0.0, 0.0, 0.0, 1.0, 1.0, 0.0, 1.0, 3.0, 0.0, 1.0, 4.0, 2.0, 2.0, 3.0, 4.0, 3.0, 3.0, 9.0, 8.0, 6.0, 7.0, 10.0, 8.0, 16.0, 10.0, 14.0, 13.0, 11.0, 9.0, 9.0, 7.0, 11.0, 9.0, 1.0, 1.0, 7.0, 7.0, 4.0, 8.0, 3.0, 6.0, 1.0, 7.0, 3.0, 4.0, 1.0, 2.0, 3.0, 1.0, 2.0, 1.0, 1.0, 1.0, 0.0, 0.0, 0.0, 2.0], "bins": [-314.2489929199219, -305.1001281738281, -295.9512634277344, -286.8023986816406, -277.6535339355469, -268.5046691894531, -259.3558044433594, -250.20692443847656, -241.0580596923828, -231.90919494628906, -222.7603302001953, -213.61146545410156, -204.46258544921875, -195.313720703125, -186.16485595703125, -177.0159912109375, -167.86712646484375, -158.71826171875, -149.56939697265625, -140.4205322265625, -131.27166748046875, -122.12279510498047, -112.97392272949219, -103.82505798339844, -94.67619323730469, -85.52732849121094, -76.37846374511719, -67.2295913696289, -58.080726623535156, -48.931861877441406, -39.78299331665039, -30.634124755859375, -21.485260009765625, -12.336393356323242, -3.1875267028808594, 5.961339950561523, 15.110206604003906, 24.259071350097656, 33.40793991088867, 42.55680847167969, 51.70567321777344, 60.85453796386719, 70.00340270996094, 79.15227508544922, 88.30113983154297, 97.45000457763672, 106.598876953125, 115.74774169921875, 124.8966064453125, 134.04547119140625, 143.1943359375, 152.34320068359375, 161.4920654296875, 170.64093017578125, 179.78981018066406, 188.9386749267578, 198.08753967285156, 207.2364044189453, 216.38526916503906, 225.5341339111328, 234.68301391601562, 243.83187866210938, 252.98074340820312, 262.1296081542969, 271.2784729003906]}, "gradients/encoder.sequential.7.1.bias": {"_type": "histogram", "values": [3.0, 4.0, 0.0, 0.0, 0.0, 0.0, 2.0, 2.0, 1.0, 3.0, 2.0, 3.0, 4.0, 3.0, 4.0, 5.0, 1.0, 7.0, 8.0, 4.0, 6.0, 7.0, 8.0, 5.0, 4.0, 11.0, 7.0, 8.0, 7.0, 7.0, 6.0, 11.0, 10.0, 10.0, 10.0, 3.0, 6.0, 8.0, 5.0, 10.0, 3.0, 5.0, 5.0, 6.0, 5.0, 8.0, 2.0, 2.0, 3.0, 4.0, 0.0, 0.0, 1.0, 1.0, 0.0, 1.0, 2.0, 0.0, 1.0, 0.0, 0.0, 1.0, 0.0, 1.0], "bins": [-160.970703125, -155.69546508789062, -150.42022705078125, -145.1449737548828, -139.86973571777344, -134.59449768066406, -129.3192596435547, -124.04401397705078, -118.76876831054688, -113.4935302734375, -108.2182846069336, -102.94304656982422, -97.66780090332031, -92.39256286621094, -87.11732482910156, -81.84207916259766, -76.56684112548828, -71.2916030883789, -66.016357421875, -60.741119384765625, -55.46587371826172, -50.190635681152344, -44.9153938293457, -39.64015197753906, -34.36491012573242, -29.08966827392578, -23.81442642211914, -18.539186477661133, -13.263944625854492, -7.988702774047852, -2.7134628295898438, 2.561779022216797, 7.8370208740234375, 13.112262725830078, 18.38750457763672, 23.662744522094727, 28.937986373901367, 34.213226318359375, 39.488468170166016, 44.763710021972656, 50.0389518737793, 55.31419372558594, 60.58943557739258, 65.86467742919922, 71.1399154663086, 76.4151611328125, 81.69039916992188, 86.96563720703125, 92.24088287353516, 97.51612091064453, 102.79136657714844, 108.06660461425781, 113.34185028076172, 118.6170883178711, 123.892333984375, 129.16757202148438, 134.44281005859375, 139.71804809570312, 144.9932861328125, 150.26853942871094, 155.5437774658203, 160.8190155029297, 166.09425354003906, 171.3695068359375, 176.64474487304688]}, "gradients/encoder.sequential.7.0.weight": {"_type": "histogram", "values": [3.0, 0.0, 0.0, 2.0, 1.0, 2.0, 0.0, 0.0, 2.0, 11.0, 2.0, 6.0, 6.0, 12.0, 9.0, 5.0, 18.0, 16.0, 30.0, 27.0, 37.0, 55.0, 76.0, 104.0, 131.0, 178.0, 296.0, 352.0, 599.0, 882.0, 1281.0, 1838.0, 2735.0, 4384.0, 7082.0, 12317.0, 23943.0, 48461.0, 42105.0, 19664.0, 10692.0, 6448.0, 4243.0, 2905.0, 1849.0, 1212.0, 771.0, 550.0, 388.0, 232.0, 200.0, 128.0, 89.0, 76.0, 51.0, 37.0, 31.0, 15.0, 11.0, 2.0, 2.0, 1.0, 0.0, 3.0], "bins": [-2358.0, -2295.765625, -2233.53125, -2171.296875, -2109.0625, -2046.828125, -1984.59375, -1922.359375, -1860.125, -1797.890625, -1735.65625, -1673.421875, -1611.1875, -1548.953125, -1486.71875, -1424.484375, -1362.25, -1300.015625, -1237.78125, -1175.546875, -1113.3125, -1051.078125, -988.84375, -926.609375, -864.375, -802.140625, -739.90625, -677.671875, -615.4375, -553.203125, -490.96875, -428.734375, -366.5, -304.265625, -242.03125, -179.796875, -117.5625, -55.328125, 6.90625, 69.140625, 131.375, 193.609375, 255.84375, 318.078125, 380.3125, 442.546875, 504.78125, 567.015625, 629.25, 691.484375, 753.71875, 815.953125, 878.1875, 940.421875, 1002.65625, 1064.890625, 1127.125, 1189.359375, 1251.59375, 1313.828125, 1376.0625, 1438.296875, 1500.53125, 1562.765625, 1625.0]}, "gradients/encoder.sequential.7.0.bias": {"_type": "histogram", "values": [1.0, 0.0, 0.0, 1.0, 0.0, 0.0, 0.0, 0.0, 0.0, 0.0, 0.0, 0.0, 1.0, 0.0, 1.0, 0.0, 1.0, 2.0, 5.0, 2.0, 2.0, 5.0, 3.0, 9.0, 4.0, 10.0, 4.0, 11.0, 11.0, 13.0, 14.0, 22.0, 16.0, 13.0, 14.0, 16.0, 9.0, 11.0, 4.0, 6.0, 6.0, 5.0, 5.0, 4.0, 6.0, 6.0, 0.0, 3.0, 1.0, 1.0, 1.0, 1.0, 0.0, 0.0, 2.0, 0.0, 0.0, 0.0, 1.0, 1.0, 1.0, 0.0, 0.0, 1.0], "bins": [-0.1910400390625, -0.18503761291503906, -0.17903518676757812, -0.1730327606201172, -0.16703033447265625, -0.1610279083251953, -0.15502548217773438, -0.14902305603027344, -0.1430206298828125, -0.13701820373535156, -0.13101577758789062, -0.1250133514404297, -0.11901092529296875, -0.11300849914550781, -0.10700607299804688, -0.10100364685058594, -0.095001220703125, -0.08899879455566406, -0.08299636840820312, -0.07699394226074219, -0.07099151611328125, -0.06498908996582031, -0.058986663818359375, -0.05298423767089844, -0.0469818115234375, -0.04097938537597656, -0.034976959228515625, -0.028974533081054688, -0.02297210693359375, -0.016969680786132812, -0.010967254638671875, -0.0049648284912109375, 0.00103759765625, 0.0070400238037109375, 0.013042449951171875, 0.019044876098632812, 0.02504730224609375, 0.031049728393554688, 0.037052154541015625, 0.04305458068847656, 0.0490570068359375, 0.05505943298339844, 0.061061859130859375, 0.06706428527832031, 0.07306671142578125, 0.07906913757324219, 0.08507156372070312, 0.09107398986816406, 0.097076416015625, 0.10307884216308594, 0.10908126831054688, 0.11508369445800781, 0.12108612060546875, 0.1270885467529297, 0.13309097290039062, 0.13909339904785156, 0.1450958251953125, 0.15109825134277344, 0.15710067749023438, 0.1631031036376953, 0.16910552978515625, 0.1751079559326172, 0.18111038208007812, 0.18711280822753906, 0.193115234375]}, "gradients/encoder.sequential.6.1.weight": {"_type": "histogram", "values": [1.0, 0.0, 0.0, 0.0, 0.0, 1.0, 0.0, 0.0, 2.0, 1.0, 0.0, 2.0, 0.0, 3.0, 1.0, 2.0, 0.0, 1.0, 2.0, 2.0, 4.0, 1.0, 5.0, 7.0, 6.0, 10.0, 11.0, 13.0, 10.0, 20.0, 20.0, 14.0, 13.0, 14.0, 11.0, 6.0, 7.0, 11.0, 7.0, 9.0, 5.0, 4.0, 4.0, 3.0, 0.0, 5.0, 1.0, 3.0, 1.0, 4.0, 0.0, 1.0, 3.0, 1.0, 0.0, 0.0, 0.0, 2.0, 0.0, 0.0, 1.0, 0.0, 0.0, 1.0], "bins": [-378.6208190917969, -366.80914306640625, -354.9974670410156, -343.185791015625, -331.3741455078125, -319.5624694824219, -307.75079345703125, -295.9391174316406, -284.12744140625, -272.3157653808594, -260.50408935546875, -248.6924285888672, -236.88075256347656, -225.06907653808594, -213.25741577148438, -201.44573974609375, -189.63406372070312, -177.8223876953125, -166.01071166992188, -154.1990509033203, -142.3873748779297, -130.57569885253906, -118.76403045654297, -106.95236206054688, -95.14068603515625, -83.32901000976562, -71.51734161376953, -59.70566940307617, -47.89399719238281, -36.08232498168945, -24.270652770996094, -12.458984375, -0.647308349609375, 11.164363861083984, 22.976036071777344, 34.7877082824707, 46.59938049316406, 58.41105270385742, 70.22272491455078, 82.03439331054688, 93.8460693359375, 105.65774536132812, 117.46941375732422, 129.2810821533203, 141.09275817871094, 152.90443420410156, 164.71609497070312, 176.52777099609375, 188.33944702148438, 200.151123046875, 211.96279907226562, 223.7744598388672, 235.5861358642578, 247.39781188964844, 259.20947265625, 271.0211486816406, 282.83282470703125, 294.6445007324219, 306.4561767578125, 318.2678527832031, 330.07952880859375, 341.89117431640625, 353.7028503417969, 365.5145263671875, 377.3262023925781]}, "gradients/encoder.sequential.6.1.bias": {"_type": "histogram", "values": [1.0, 0.0, 3.0, 0.0, 0.0, 0.0, 2.0, 0.0, 4.0, 3.0, 5.0, 3.0, 2.0, 4.0, 9.0, 7.0, 2.0, 6.0, 13.0, 7.0, 6.0, 13.0, 13.0, 11.0, 14.0, 3.0, 7.0, 6.0, 9.0, 6.0, 5.0, 10.0, 13.0, 11.0, 5.0, 5.0, 8.0, 4.0, 4.0, 2.0, 2.0, 2.0, 5.0, 1.0, 4.0, 1.0, 3.0, 5.0, 0.0, 1.0, 2.0, 0.0, 1.0, 2.0, 0.0, 0.0, 0.0, 0.0, 0.0, 0.0, 0.0, 0.0, 0.0, 1.0], "bins": [-191.46791076660156, -184.65151977539062, -177.8351287841797, -171.01873779296875, -164.2023468017578, -157.38595581054688, -150.569580078125, -143.75318908691406, -136.93679809570312, -130.1204071044922, -123.30401611328125, -116.48762512207031, -109.6712417602539, -102.85485076904297, -96.03845977783203, -89.22207641601562, -82.40567779541016, -75.58928680419922, -68.77289581298828, -61.95650863647461, -55.14012145996094, -48.32373046875, -41.50733947753906, -34.69095230102539, -27.874561309814453, -21.05817222595215, -14.241782188415527, -7.425392150878906, -0.6090030670166016, 6.207386016845703, 13.02377700805664, 19.840164184570312, 26.65655517578125, 33.47294616699219, 40.28933334350586, 47.1057243347168, 53.92211151123047, 60.738502502441406, 67.55489349365234, 74.37127685546875, 81.18766784667969, 88.00405883789062, 94.82044982910156, 101.6368408203125, 108.4532241821289, 115.26961517333984, 122.08600616455078, 128.9023895263672, 135.71878051757812, 142.53517150878906, 149.3515625, 156.16795349121094, 162.98434448242188, 169.80072021484375, 176.61712646484375, 183.43350219726562, 190.24990844726562, 197.06629943847656, 203.8826904296875, 210.69908142089844, 217.51547241210938, 224.33184814453125, 231.14825439453125, 237.96463012695312, 244.78102111816406]}, "gradients/encoder.sequential.6.0.weight": {"_type": "histogram", "values": [1.0, 0.0, 0.0, 1.0, 4.0, 8.0, 6.0, 6.0, 18.0, 28.0, 53.0, 59.0, 103.0, 175.0, 232.0, 327.0, 523.0, 644.0, 880.0, 1143.0, 1615.0, 2285.0, 3405.0, 5436.0, 9100.0, 19000.0, 45832.0, 51537.0, 22721.0, 11265.0, 6857.0, 4605.0, 3027.0, 1976.0, 1253.0, 845.0, 521.0, 396.0, 217.0, 136.0, 111.0, 56.0, 43.0, 41.0, 16.0, 19.0, 17.0, 13.0, 8.0, 7.0, 8.0, 4.0, 1.0, 4.0, 2.0, 4.0, 2.0, 4.0, 2.0, 2.0, 1.0, 1.0, 0.0, 2.0], "bins": [-1654.0, -1592.90625, -1531.8125, -1470.71875, -1409.625, -1348.53125, -1287.4375, -1226.34375, -1165.25, -1104.15625, -1043.0625, -981.96875, -920.875, -859.78125, -798.6875, -737.59375, -676.5, -615.40625, -554.3125, -493.21875, -432.125, -371.03125, -309.9375, -248.84375, -187.75, -126.65625, -65.5625, -4.46875, 56.625, 117.71875, 178.8125, 239.90625, 301.0, 362.09375, 423.1875, 484.28125, 545.375, 606.46875, 667.5625, 728.65625, 789.75, 850.84375, 911.9375, 973.03125, 1034.125, 1095.21875, 1156.3125, 1217.40625, 1278.5, 1339.59375, 1400.6875, 1461.78125, 1522.875, 1583.96875, 1645.0625, 1706.15625, 1767.25, 1828.34375, 1889.4375, 1950.53125, 2011.625, 2072.71875, 2133.8125, 2194.90625, 2256.0]}, "gradients/encoder.sequential.6.0.bias": {"_type": "histogram", "values": [1.0, 0.0, 0.0, 0.0, 1.0, 0.0, 1.0, 0.0, 1.0, 2.0, 1.0, 0.0, 4.0, 1.0, 0.0, 1.0, 2.0, 0.0, 4.0, 3.0, 2.0, 5.0, 5.0, 5.0, 10.0, 2.0, 13.0, 10.0, 9.0, 5.0, 8.0, 10.0, 15.0, 16.0, 19.0, 9.0, 13.0, 13.0, 11.0, 17.0, 3.0, 4.0, 5.0, 3.0, 3.0, 5.0, 0.0, 3.0, 3.0, 1.0, 1.0, 0.0, 2.0, 2.0, 0.0, 0.0, 0.0, 1.0, 0.0, 0.0, 0.0, 0.0, 0.0, 1.0], "bins": [-0.19873046875, -0.19281387329101562, -0.18689727783203125, -0.18098068237304688, -0.1750640869140625, -0.16914749145507812, -0.16323089599609375, -0.15731430053710938, -0.151397705078125, -0.14548110961914062, -0.13956451416015625, -0.13364791870117188, -0.1277313232421875, -0.12181472778320312, -0.11589813232421875, -0.10998153686523438, -0.10406494140625, -0.09814834594726562, -0.09223175048828125, -0.08631515502929688, -0.0803985595703125, -0.07448196411132812, -0.06856536865234375, -0.06264877319335938, -0.056732177734375, -0.050815582275390625, -0.04489898681640625, -0.038982391357421875, -0.0330657958984375, -0.027149200439453125, -0.02123260498046875, -0.015316009521484375, -0.0093994140625, -0.003482818603515625, 0.00243377685546875, 0.008350372314453125, 0.0142669677734375, 0.020183563232421875, 0.02610015869140625, 0.032016754150390625, 0.037933349609375, 0.043849945068359375, 0.04976654052734375, 0.055683135986328125, 0.0615997314453125, 0.06751632690429688, 0.07343292236328125, 0.07934951782226562, 0.08526611328125, 0.09118270874023438, 0.09709930419921875, 0.10301589965820312, 0.1089324951171875, 0.11484909057617188, 0.12076568603515625, 0.12668228149414062, 0.132598876953125, 0.13851547241210938, 0.14443206787109375, 0.15034866333007812, 0.1562652587890625, 0.16218185424804688, 0.16809844970703125, 0.17401504516601562, 0.179931640625]}, "gradients/encoder.sequential.5.1.weight": {"_type": "histogram", "values": [1.0, 1.0, 0.0, 0.0, 0.0, 0.0, 0.0, 0.0, 0.0, 1.0, 0.0, 0.0, 0.0, 2.0, 0.0, 2.0, 1.0, 1.0, 0.0, 1.0, 4.0, 3.0, 2.0, 2.0, 6.0, 2.0, 6.0, 11.0, 12.0, 10.0, 23.0, 16.0, 18.0, 19.0, 21.0, 14.0, 8.0, 8.0, 5.0, 11.0, 9.0, 5.0, 6.0, 2.0, 2.0, 0.0, 3.0, 4.0, 4.0, 3.0, 3.0, 1.0, 0.0, 0.0, 0.0, 1.0, 0.0, 1.0, 0.0, 0.0, 0.0, 0.0, 0.0, 1.0], "bins": [-395.4901428222656, -383.7014465332031, -371.9127502441406, -360.1240539550781, -348.3353576660156, -336.5466613769531, -324.7579345703125, -312.96923828125, -301.1805419921875, -289.391845703125, -277.6031494140625, -265.814453125, -254.0257568359375, -242.237060546875, -230.44834899902344, -218.65965270996094, -206.8709716796875, -195.082275390625, -183.2935791015625, -171.5048828125, -159.7161865234375, -147.927490234375, -136.13877868652344, -124.35008239746094, -112.56138610839844, -100.77268981933594, -88.98399353027344, -77.1952896118164, -65.4065933227539, -53.617897033691406, -41.829193115234375, -30.040496826171875, -18.25177001953125, -6.463071823120117, 5.325626373291016, 17.11432647705078, 28.90302276611328, 40.69171905517578, 52.48042297363281, 64.26911926269531, 76.05781555175781, 87.84651184082031, 99.63520812988281, 111.42391204833984, 123.21260833740234, 135.00131225585938, 146.79000854492188, 158.57870483398438, 170.36740112304688, 182.15609741210938, 193.94479370117188, 205.73348999023438, 217.52218627929688, 229.31088256835938, 241.09959411621094, 252.88829040527344, 264.677001953125, 276.4656982421875, 288.25439453125, 300.0430908203125, 311.831787109375, 323.6204833984375, 335.4091796875, 347.1978759765625, 358.986572265625]}, "gradients/encoder.sequential.5.1.bias": {"_type": "histogram", "values": [1.0, 0.0, 1.0, 0.0, 0.0, 1.0, 0.0, 1.0, 1.0, 0.0, 2.0, 2.0, 1.0, 2.0, 3.0, 4.0, 2.0, 5.0, 2.0, 7.0, 5.0, 5.0, 3.0, 9.0, 5.0, 12.0, 11.0, 15.0, 11.0, 10.0, 11.0, 8.0, 9.0, 7.0, 9.0, 12.0, 5.0, 7.0, 4.0, 5.0, 10.0, 6.0, 3.0, 4.0, 2.0, 3.0, 3.0, 3.0, 1.0, 1.0, 3.0, 4.0, 4.0, 3.0, 0.0, 3.0, 1.0, 1.0, 1.0, 0.0, 0.0, 1.0, 0.0, 1.0], "bins": [-188.88467407226562, -183.01268005371094, -177.1406707763672, -171.2686767578125, -165.39666748046875, -159.52467346191406, -153.65267944335938, -147.78067016601562, -141.90867614746094, -136.03668212890625, -130.1646728515625, -124.29267883300781, -118.4206771850586, -112.54867553710938, -106.67668151855469, -100.80467987060547, -94.93267822265625, -89.06067657470703, -83.18867492675781, -77.31668090820312, -71.4446792602539, -65.57267761230469, -59.700679779052734, -53.82868194580078, -47.95668029785156, -42.084678649902344, -36.21268081665039, -30.340681076049805, -24.46868133544922, -18.596681594848633, -12.724681854248047, -6.852684020996094, -0.980682373046875, 4.891317367553711, 10.763317108154297, 16.635316848754883, 22.50731658935547, 28.379316329956055, 34.25131607055664, 40.123313903808594, 45.99531555175781, 51.86731719970703, 57.739315032958984, 63.61131286621094, 69.48331451416016, 75.35531616210938, 81.22731018066406, 87.09931182861328, 92.9713134765625, 98.84331512451172, 104.71531677246094, 110.58731079101562, 116.45931243896484, 122.33131408691406, 128.20330810546875, 134.0753173828125, 139.9473114013672, 145.81930541992188, 151.69131469726562, 157.5633087158203, 163.435302734375, 169.30731201171875, 175.17930603027344, 181.05130004882812, 186.92330932617188]}, "gradients/encoder.sequential.5.0.weight": {"_type": "histogram", "values": [1.0, 0.0, 1.0, 0.0, 3.0, 7.0, 5.0, 11.0, 15.0, 27.0, 27.0, 28.0, 52.0, 46.0, 73.0, 99.0, 109.0, 115.0, 177.0, 201.0, 323.0, 384.0, 545.0, 727.0, 982.0, 1419.0, 1948.0, 2855.0, 3979.0, 5910.0, 9484.0, 19653.0, 48742.0, 45884.0, 20879.0, 10464.0, 6212.0, 3979.0, 2717.0, 2139.0, 1574.0, 1179.0, 914.0, 680.0, 530.0, 374.0, 314.0, 221.0, 168.0, 113.0, 84.0, 77.0, 41.0, 35.0, 22.0, 22.0, 6.0, 9.0, 4.0, 9.0, 4.0, 2.0, 3.0, 1.0], "bins": [-1608.0, -1559.15625, -1510.3125, -1461.46875, -1412.625, -1363.78125, -1314.9375, -1266.09375, -1217.25, -1168.40625, -1119.5625, -1070.71875, -1021.875, -973.03125, -924.1875, -875.34375, -826.5, -777.65625, -728.8125, -679.96875, -631.125, -582.28125, -533.4375, -484.59375, -435.75, -386.90625, -338.0625, -289.21875, -240.375, -191.53125, -142.6875, -93.84375, -45.0, 3.84375, 52.6875, 101.53125, 150.375, 199.21875, 248.0625, 296.90625, 345.75, 394.59375, 443.4375, 492.28125, 541.125, 589.96875, 638.8125, 687.65625, 736.5, 785.34375, 834.1875, 883.03125, 931.875, 980.71875, 1029.5625, 1078.40625, 1127.25, 1176.09375, 1224.9375, 1273.78125, 1322.625, 1371.46875, 1420.3125, 1469.15625, 1518.0]}, "gradients/encoder.sequential.5.0.bias": {"_type": "histogram", "values": [1.0, 0.0, 0.0, 0.0, 0.0, 0.0, 0.0, 0.0, 0.0, 1.0, 1.0, 2.0, 0.0, 2.0, 0.0, 1.0, 1.0, 1.0, 0.0, 1.0, 3.0, 2.0, 5.0, 3.0, 4.0, 6.0, 8.0, 5.0, 8.0, 11.0, 17.0, 16.0, 13.0, 7.0, 12.0, 15.0, 16.0, 13.0, 13.0, 5.0, 11.0, 4.0, 7.0, 5.0, 7.0, 3.0, 5.0, 1.0, 3.0, 1.0, 4.0, 1.0, 1.0, 0.0, 2.0, 3.0, 1.0, 0.0, 0.0, 1.0, 0.0, 1.0, 0.0, 2.0], "bins": [-0.1884765625, -0.18314361572265625, -0.1778106689453125, -0.17247772216796875, -0.167144775390625, -0.16181182861328125, -0.1564788818359375, -0.15114593505859375, -0.14581298828125, -0.14048004150390625, -0.1351470947265625, -0.12981414794921875, -0.124481201171875, -0.11914825439453125, -0.1138153076171875, -0.10848236083984375, -0.1031494140625, -0.09781646728515625, -0.0924835205078125, -0.08715057373046875, -0.081817626953125, -0.07648468017578125, -0.0711517333984375, -0.06581878662109375, -0.06048583984375, -0.05515289306640625, -0.0498199462890625, -0.04448699951171875, -0.039154052734375, -0.03382110595703125, -0.0284881591796875, -0.02315521240234375, -0.017822265625, -0.01248931884765625, -0.0071563720703125, -0.00182342529296875, 0.003509521484375, 0.00884246826171875, 0.0141754150390625, 0.01950836181640625, 0.02484130859375, 0.03017425537109375, 0.0355072021484375, 0.04084014892578125, 0.046173095703125, 0.05150604248046875, 0.0568389892578125, 0.06217193603515625, 0.0675048828125, 0.07283782958984375, 0.0781707763671875, 0.08350372314453125, 0.088836669921875, 0.09416961669921875, 0.0995025634765625, 0.10483551025390625, 0.11016845703125, 0.11550140380859375, 0.1208343505859375, 0.12616729736328125, 0.131500244140625, 0.13683319091796875, 0.1421661376953125, 0.14749908447265625, 0.15283203125]}, "gradients/encoder.sequential.4.1.weight": {"_type": "histogram", "values": [1.0, 0.0, 0.0, 1.0, 0.0, 0.0, 1.0, 0.0, 0.0, 1.0, 2.0, 2.0, 0.0, 4.0, 0.0, 1.0, 4.0, 3.0, 3.0, 2.0, 1.0, 2.0, 6.0, 5.0, 3.0, 6.0, 12.0, 13.0, 15.0, 11.0, 19.0, 9.0, 18.0, 19.0, 12.0, 10.0, 12.0, 3.0, 6.0, 5.0, 6.0, 4.0, 4.0, 6.0, 3.0, 1.0, 2.0, 2.0, 2.0, 2.0, 2.0, 2.0, 0.0, 0.0, 2.0, 2.0, 0.0, 1.0, 1.0, 0.0, 1.0, 0.0, 0.0, 1.0], "bins": [-328.8846435546875, -318.6418151855469, -308.39898681640625, -298.1561584472656, -287.913330078125, -277.67047119140625, -267.42767333984375, -257.184814453125, -246.94198608398438, -236.69915771484375, -226.45632934570312, -216.2135009765625, -205.9706573486328, -195.7278289794922, -185.48500061035156, -175.24215698242188, -164.9993438720703, -154.7565155029297, -144.51368713378906, -134.27084350585938, -124.02801513671875, -113.78518676757812, -103.5423583984375, -93.29952239990234, -83.05669403076172, -72.8138656616211, -62.57102966308594, -52.32820129394531, -42.08536911010742, -31.84253692626953, -21.599708557128906, -11.35687255859375, -1.114044189453125, 9.12878704071045, 19.371618270874023, 29.61444854736328, 39.85728073120117, 50.10011291503906, 60.34294128417969, 70.58577728271484, 80.82860565185547, 91.0714340209961, 101.31427001953125, 111.55709838867188, 121.7999267578125, 132.04275512695312, 142.28558349609375, 152.52842712402344, 162.77125549316406, 173.0140838623047, 183.2569122314453, 193.499755859375, 203.74258422851562, 213.98541259765625, 224.22824096679688, 234.4710693359375, 244.71389770507812, 254.95672607421875, 265.1995544433594, 275.4423828125, 285.6852111816406, 295.92803955078125, 306.1708984375, 316.4137268066406, 326.65655517578125]}, "gradients/encoder.sequential.4.1.bias": {"_type": "histogram", "values": [1.0, 0.0, 0.0, 0.0, 0.0, 0.0, 0.0, 0.0, 0.0, 0.0, 0.0, 1.0, 0.0, 0.0, 0.0, 1.0, 1.0, 1.0, 1.0, 4.0, 2.0, 3.0, 3.0, 6.0, 3.0, 7.0, 7.0, 5.0, 3.0, 12.0, 14.0, 9.0, 9.0, 6.0, 9.0, 11.0, 2.0, 10.0, 9.0, 11.0, 8.0, 12.0, 10.0, 6.0, 10.0, 5.0, 7.0, 6.0, 6.0, 3.0, 4.0, 7.0, 3.0, 6.0, 1.0, 3.0, 1.0, 1.0, 2.0, 0.0, 1.0, 1.0, 1.0, 1.0], "bins": [-223.01455688476562, -217.23370361328125, -211.45285034179688, -205.6719970703125, -199.8911590576172, -194.1103057861328, -188.32945251464844, -182.54859924316406, -176.76776123046875, -170.98690795898438, -165.2060546875, -159.42520141601562, -153.6443634033203, -147.86351013183594, -142.08265686035156, -136.3018035888672, -130.5209503173828, -124.74009704589844, -118.9592514038086, -113.17839813232422, -107.39755249023438, -101.61669921875, -95.83584594726562, -90.05499267578125, -84.2741470336914, -78.49329376220703, -72.71244812011719, -66.93159484863281, -61.1507453918457, -55.369895935058594, -49.58904266357422, -43.80819320678711, -38.02735900878906, -32.24650955200195, -26.46565818786621, -20.68480682373047, -14.90395736694336, -9.12310791015625, -3.342254638671875, 2.4385948181152344, 8.219444274902344, 14.00029468536377, 19.781145095825195, 25.561996459960938, 31.342845916748047, 37.123695373535156, 42.90454864501953, 48.68539810180664, 54.46624755859375, 60.24709701538086, 66.02794647216797, 71.80879974365234, 77.58964538574219, 83.37049865722656, 89.15135192871094, 94.93220520019531, 100.71305084228516, 106.49390411376953, 112.27474975585938, 118.05560302734375, 123.83645629882812, 129.6173095703125, 135.39816284179688, 141.1790008544922, 146.95985412597656]}, "gradients/encoder.sequential.4.0.weight": {"_type": "histogram", "values": [2.0, 2.0, 2.0, 3.0, 2.0, 3.0, 2.0, 4.0, 5.0, 10.0, 17.0, 15.0, 33.0, 54.0, 45.0, 74.0, 96.0, 109.0, 154.0, 250.0, 330.0, 467.0, 655.0, 867.0, 1178.0, 1696.0, 2442.0, 3418.0, 4789.0, 7414.0, 11831.0, 23349.0, 55460.0, 38170.0, 16030.0, 9039.0, 5648.0, 3694.0, 2571.0, 1940.0, 1322.0, 922.0, 711.0, 501.0, 378.0, 261.0, 185.0, 143.0, 102.0, 68.0, 42.0, 34.0, 20.0, 21.0, 9.0, 5.0, 8.0, 2.0, 2.0, 0.0, 0.0, 0.0, 1.0, 1.0], "bins": [-1667.0, -1616.09375, -1565.1875, -1514.28125, -1463.375, -1412.46875, -1361.5625, -1310.65625, -1259.75, -1208.84375, -1157.9375, -1107.03125, -1056.125, -1005.21875, -954.3125, -903.40625, -852.5, -801.59375, -750.6875, -699.78125, -648.875, -597.96875, -547.0625, -496.15625, -445.25, -394.34375, -343.4375, -292.53125, -241.625, -190.71875, -139.8125, -88.90625, -38.0, 12.90625, 63.8125, 114.71875, 165.625, 216.53125, 267.4375, 318.34375, 369.25, 420.15625, 471.0625, 521.96875, 572.875, 623.78125, 674.6875, 725.59375, 776.5, 827.40625, 878.3125, 929.21875, 980.125, 1031.03125, 1081.9375, 1132.84375, 1183.75, 1234.65625, 1285.5625, 1336.46875, 1387.375, 1438.28125, 1489.1875, 1540.09375, 1591.0]}, "gradients/encoder.sequential.4.0.bias": {"_type": "histogram", "values": [1.0, 0.0, 0.0, 0.0, 0.0, 0.0, 0.0, 0.0, 0.0, 1.0, 0.0, 0.0, 0.0, 1.0, 1.0, 0.0, 0.0, 1.0, 0.0, 0.0, 0.0, 3.0, 1.0, 1.0, 3.0, 4.0, 6.0, 5.0, 7.0, 10.0, 18.0, 24.0, 25.0, 23.0, 24.0, 20.0, 19.0, 15.0, 6.0, 5.0, 11.0, 5.0, 3.0, 1.0, 3.0, 0.0, 0.0, 0.0, 1.0, 1.0, 3.0, 2.0, 0.0, 0.0, 0.0, 0.0, 0.0, 0.0, 0.0, 1.0, 0.0, 0.0, 0.0, 1.0], "bins": [-0.2449951171875, -0.23774337768554688, -0.23049163818359375, -0.22323989868164062, -0.2159881591796875, -0.20873641967773438, -0.20148468017578125, -0.19423294067382812, -0.186981201171875, -0.17972946166992188, -0.17247772216796875, -0.16522598266601562, -0.1579742431640625, -0.15072250366210938, -0.14347076416015625, -0.13621902465820312, -0.12896728515625, -0.12171554565429688, -0.11446380615234375, -0.10721206665039062, -0.0999603271484375, -0.09270858764648438, -0.08545684814453125, -0.07820510864257812, -0.070953369140625, -0.06370162963867188, -0.05644989013671875, -0.049198150634765625, -0.0419464111328125, -0.034694671630859375, -0.02744293212890625, -0.020191192626953125, -0.012939453125, -0.005687713623046875, 0.00156402587890625, 0.008815765380859375, 0.0160675048828125, 0.023319244384765625, 0.03057098388671875, 0.037822723388671875, 0.045074462890625, 0.052326202392578125, 0.05957794189453125, 0.06682968139648438, 0.0740814208984375, 0.08133316040039062, 0.08858489990234375, 0.09583663940429688, 0.10308837890625, 0.11034011840820312, 0.11759185791015625, 0.12484359741210938, 0.1320953369140625, 0.13934707641601562, 0.14659881591796875, 0.15385055541992188, 0.161102294921875, 0.16835403442382812, 0.17560577392578125, 0.18285751342773438, 0.1901092529296875, 0.19736099243164062, 0.20461273193359375, 0.21186447143554688, 0.2191162109375]}, "gradients/encoder.sequential.3.1.weight": {"_type": "histogram", "values": [1.0, 0.0, 0.0, 0.0, 0.0, 0.0, 0.0, 0.0, 1.0, 0.0, 0.0, 0.0, 1.0, 1.0, 0.0, 0.0, 2.0, 4.0, 2.0, 0.0, 2.0, 2.0, 7.0, 6.0, 3.0, 3.0, 5.0, 3.0, 11.0, 15.0, 14.0, 17.0, 16.0, 11.0, 13.0, 21.0, 6.0, 12.0, 9.0, 6.0, 9.0, 5.0, 5.0, 4.0, 5.0, 5.0, 6.0, 1.0, 5.0, 3.0, 4.0, 3.0, 1.0, 1.0, 0.0, 2.0, 0.0, 1.0, 0.0, 1.0, 0.0, 0.0, 0.0, 1.0], "bins": [-342.0445861816406, -332.1547546386719, -322.2649230957031, -312.3750915527344, -302.4852600097656, -292.59539794921875, -282.70556640625, -272.81573486328125, -262.9259033203125, -253.03607177734375, -243.146240234375, -233.25640869140625, -223.36656188964844, -213.4767303466797, -203.58689880371094, -193.69705200195312, -183.80723571777344, -173.9174041748047, -164.02757263183594, -154.13772583007812, -144.24789428710938, -134.35806274414062, -124.46823120117188, -114.5783920288086, -104.68856048583984, -94.7987289428711, -84.90888977050781, -75.01905822753906, -65.12922668457031, -55.23938751220703, -45.34955596923828, -35.459716796875, -25.56988525390625, -15.68005084991455, -5.790216445922852, 4.099617004394531, 13.989452362060547, 23.879287719726562, 33.76911926269531, 43.658958435058594, 53.548789978027344, 63.43862533569336, 73.32846069335938, 83.21829223632812, 93.10812377929688, 102.99796295166016, 112.8877944946289, 122.77763366699219, 132.66746520996094, 142.5572967529297, 152.44712829589844, 162.33697509765625, 172.226806640625, 182.11663818359375, 192.0064697265625, 201.89630126953125, 211.7861328125, 221.67596435546875, 231.5657958984375, 241.45562744140625, 251.34547424316406, 261.23529052734375, 271.1251220703125, 281.0149841308594, 290.9048156738281]}, "gradients/encoder.sequential.3.1.bias": {"_type": "histogram", "values": [2.0, 1.0, 1.0, 0.0, 1.0, 0.0, 3.0, 0.0, 1.0, 1.0, 0.0, 0.0, 3.0, 3.0, 2.0, 5.0, 3.0, 5.0, 5.0, 8.0, 4.0, 2.0, 4.0, 10.0, 6.0, 4.0, 6.0, 13.0, 3.0, 10.0, 7.0, 10.0, 8.0, 10.0, 10.0, 7.0, 5.0, 4.0, 17.0, 7.0, 3.0, 5.0, 3.0, 8.0, 8.0, 3.0, 3.0, 2.0, 5.0, 2.0, 5.0, 3.0, 3.0, 3.0, 1.0, 1.0, 1.0, 1.0, 1.0, 0.0, 2.0, 0.0, 1.0, 1.0], "bins": [-134.02833557128906, -129.984619140625, -125.9408950805664, -121.89717864990234, -117.85345458984375, -113.80973815917969, -109.76602172851562, -105.72230529785156, -101.67858123779297, -97.6348648071289, -93.59114074707031, -89.54742431640625, -85.50370788574219, -81.4599838256836, -77.41626739501953, -73.37254333496094, -69.32882690429688, -65.28511047363281, -61.24138641357422, -57.197669982910156, -53.15394973754883, -49.1102294921875, -45.06651306152344, -41.02279281616211, -36.97907257080078, -32.93535232543945, -28.891633987426758, -24.847915649414062, -20.804195404052734, -16.760475158691406, -12.716756820678711, -8.673038482666016, -4.6293182373046875, -0.5855989456176758, 3.458120346069336, 7.501839637756348, 11.54555892944336, 15.589279174804688, 19.632997512817383, 23.676715850830078, 27.720436096191406, 31.764156341552734, 35.80787658691406, 39.851593017578125, 43.89531326293945, 47.93903350830078, 51.982749938964844, 56.02647018432617, 60.0701904296875, 64.11390686035156, 68.15763092041016, 72.20134735107422, 76.24507141113281, 80.28878784179688, 84.33250427246094, 88.376220703125, 92.4199447631836, 96.46366119384766, 100.50738525390625, 104.55110168457031, 108.59481811523438, 112.63854217529297, 116.68225860595703, 120.72598266601562, 124.76969909667969]}, "gradients/encoder.sequential.3.0.weight": {"_type": "histogram", "values": [1.0, 0.0, 0.0, 1.0, 1.0, 0.0, 1.0, 3.0, 4.0, 17.0, 17.0, 23.0, 30.0, 53.0, 54.0, 75.0, 100.0, 128.0, 182.0, 264.0, 365.0, 487.0, 678.0, 957.0, 1342.0, 1835.0, 2516.0, 3294.0, 4970.0, 7591.0, 12171.0, 18084.0, 14278.0, 8396.0, 5324.0, 3755.0, 2755.0, 2027.0, 1615.0, 1212.0, 917.0, 707.0, 511.0, 430.0, 321.0, 233.0, 165.0, 110.0, 109.0, 62.0, 52.0, 26.0, 18.0, 10.0, 7.0, 4.0, 6.0, 2.0, 3.0, 0.0, 0.0, 0.0, 2.0, 3.0], "bins": [-1500.0, -1452.59375, -1405.1875, -1357.78125, -1310.375, -1262.96875, -1215.5625, -1168.15625, -1120.75, -1073.34375, -1025.9375, -978.53125, -931.125, -883.71875, -836.3125, -788.90625, -741.5, -694.09375, -646.6875, -599.28125, -551.875, -504.46875, -457.0625, -409.65625, -362.25, -314.84375, -267.4375, -220.03125, -172.625, -125.21875, -77.8125, -30.40625, 17.0, 64.40625, 111.8125, 159.21875, 206.625, 254.03125, 301.4375, 348.84375, 396.25, 443.65625, 491.0625, 538.46875, 585.875, 633.28125, 680.6875, 728.09375, 775.5, 822.90625, 870.3125, 917.71875, 965.125, 1012.53125, 1059.9375, 1107.34375, 1154.75, 1202.15625, 1249.5625, 1296.96875, 1344.375, 1391.78125, 1439.1875, 1486.59375, 1534.0]}, "gradients/encoder.sequential.3.0.bias": {"_type": "histogram", "values": [1.0, 0.0, 0.0, 1.0, 0.0, 0.0, 0.0, 1.0, 1.0, 1.0, 2.0, 2.0, 1.0, 3.0, 2.0, 0.0, 1.0, 2.0, 2.0, 1.0, 3.0, 5.0, 4.0, 10.0, 8.0, 4.0, 8.0, 9.0, 10.0, 15.0, 13.0, 23.0, 21.0, 14.0, 14.0, 11.0, 13.0, 7.0, 6.0, 4.0, 8.0, 2.0, 4.0, 2.0, 5.0, 1.0, 0.0, 0.0, 1.0, 1.0, 0.0, 1.0, 2.0, 1.0, 0.0, 0.0, 1.0, 2.0, 0.0, 0.0, 1.0, 0.0, 0.0, 1.0], "bins": [-0.1561279296875, -0.15118026733398438, -0.14623260498046875, -0.14128494262695312, -0.1363372802734375, -0.13138961791992188, -0.12644195556640625, -0.12149429321289062, -0.116546630859375, -0.11159896850585938, -0.10665130615234375, -0.10170364379882812, -0.0967559814453125, -0.09180831909179688, -0.08686065673828125, -0.08191299438476562, -0.07696533203125, -0.07201766967773438, -0.06707000732421875, -0.062122344970703125, -0.0571746826171875, -0.052227020263671875, -0.04727935791015625, -0.042331695556640625, -0.037384033203125, -0.032436370849609375, -0.02748870849609375, -0.022541046142578125, -0.0175933837890625, -0.012645721435546875, -0.00769805908203125, -0.002750396728515625, 0.002197265625, 0.007144927978515625, 0.01209259033203125, 0.017040252685546875, 0.0219879150390625, 0.026935577392578125, 0.03188323974609375, 0.036830902099609375, 0.041778564453125, 0.046726226806640625, 0.05167388916015625, 0.056621551513671875, 0.0615692138671875, 0.06651687622070312, 0.07146453857421875, 0.07641220092773438, 0.08135986328125, 0.08630752563476562, 0.09125518798828125, 0.09620285034179688, 0.1011505126953125, 0.10609817504882812, 0.11104583740234375, 0.11599349975585938, 0.120941162109375, 0.12588882446289062, 0.13083648681640625, 0.13578414916992188, 0.1407318115234375, 0.14567947387695312, 0.15062713623046875, 0.15557479858398438, 0.1605224609375]}, "gradients/encoder.sequential.2.1.weight": {"_type": "histogram", "values": [1.0, 1.0, 0.0, 0.0, 0.0, 1.0, 0.0, 1.0, 0.0, 0.0, 0.0, 0.0, 2.0, 2.0, 0.0, 1.0, 0.0, 0.0, 1.0, 3.0, 1.0, 4.0, 0.0, 2.0, 2.0, 1.0, 1.0, 4.0, 2.0, 1.0, 6.0, 6.0, 4.0, 2.0, 3.0, 6.0, 9.0, 6.0, 3.0, 3.0, 4.0, 6.0, 3.0, 2.0, 5.0, 2.0, 1.0, 4.0, 0.0, 4.0, 2.0, 1.0, 7.0, 1.0, 0.0, 0.0, 0.0, 0.0, 0.0, 0.0, 3.0, 2.0, 0.0, 2.0], "bins": [-467.5643615722656, -454.7383117675781, -441.9122619628906, -429.086181640625, -416.2601318359375, -403.43408203125, -390.6080322265625, -377.781982421875, -364.9559326171875, -352.1298828125, -339.3038330078125, -326.477783203125, -313.6517028808594, -300.8256530761719, -287.9996032714844, -275.1735534667969, -262.34747314453125, -249.52142333984375, -236.6953582763672, -223.8693084716797, -211.0432586669922, -198.21719360351562, -185.39114379882812, -172.56509399414062, -159.73904418945312, -146.91299438476562, -134.08692932128906, -121.26087951660156, -108.43482971191406, -95.60877227783203, -82.78271484375, -69.9566650390625, -57.130615234375, -44.304561614990234, -31.478506088256836, -18.652450561523438, -5.826396942138672, 6.999656677246094, 19.825714111328125, 32.651763916015625, 45.477821350097656, 58.30387496948242, 71.12992858886719, 83.95598602294922, 96.78204345703125, 109.60809326171875, 122.43415069580078, 135.26019287109375, 148.0862579345703, 160.9123077392578, 173.73837280273438, 186.56442260742188, 199.39047241210938, 212.21652221679688, 225.04258728027344, 237.86863708496094, 250.6947021484375, 263.520751953125, 276.3468017578125, 289.1728515625, 301.9989318847656, 314.8249816894531, 327.6510314941406, 340.4770812988281, 353.3031311035156]}, "gradients/encoder.sequential.2.1.bias": {"_type": "histogram", "values": [1.0, 0.0, 0.0, 0.0, 1.0, 0.0, 0.0, 1.0, 0.0, 0.0, 0.0, 0.0, 1.0, 0.0, 3.0, 1.0, 3.0, 2.0, 2.0, 2.0, 4.0, 1.0, 3.0, 4.0, 3.0, 2.0, 4.0, 2.0, 6.0, 6.0, 4.0, 4.0, 10.0, 3.0, 4.0, 4.0, 4.0, 3.0, 3.0, 3.0, 4.0, 2.0, 3.0, 4.0, 4.0, 2.0, 1.0, 2.0, 1.0, 0.0, 1.0, 1.0, 1.0, 1.0, 1.0, 1.0, 0.0, 1.0, 0.0, 3.0, 0.0, 0.0, 0.0, 1.0], "bins": [-204.79727172851562, -198.61627197265625, -192.43527221679688, -186.25425720214844, -180.07325744628906, -173.8922576904297, -167.7112579345703, -161.53024291992188, -155.3492431640625, -149.16824340820312, -142.98724365234375, -136.8062286376953, -130.62522888183594, -124.44422912597656, -118.26322937011719, -112.08222198486328, -105.9012222290039, -99.72022247314453, -93.53921508789062, -87.35821533203125, -81.17720794677734, -74.99620819091797, -68.81520080566406, -62.63420104980469, -56.45319747924805, -50.272193908691406, -44.091190338134766, -37.910186767578125, -31.729185104370117, -25.548181533813477, -19.36717987060547, -13.186176300048828, -7.0051727294921875, -0.8241696357727051, 5.356833457946777, 11.537836074829102, 17.718839645385742, 23.899843215942383, 30.08084487915039, 36.26184844970703, 42.44285202026367, 48.62385559082031, 54.80485916137695, 60.985862731933594, 67.16686248779297, 73.34786987304688, 79.52886962890625, 85.70986938476562, 91.89087677001953, 98.0718765258789, 104.25288391113281, 110.43388366699219, 116.6148910522461, 122.79589080810547, 128.97689819335938, 135.15789794921875, 141.33889770507812, 147.5198974609375, 153.70089721679688, 159.8819122314453, 166.0629119873047, 172.24391174316406, 178.42491149902344, 184.60592651367188, 190.78692626953125]}, "gradients/encoder.sequential.2.0.weight": {"_type": "histogram", "values": [1.0, 1.0, 0.0, 1.0, 2.0, 1.0, 2.0, 2.0, 2.0, 9.0, 13.0, 20.0, 22.0, 27.0, 46.0, 48.0, 79.0, 97.0, 119.0, 179.0, 211.0, 284.0, 324.0, 400.0, 595.0, 709.0, 1020.0, 1310.0, 1723.0, 2395.0, 3333.0, 4709.0, 6414.0, 6435.0, 4794.0, 3281.0, 2461.0, 1852.0, 1441.0, 1105.0, 874.0, 640.0, 536.0, 415.0, 300.0, 224.0, 203.0, 140.0, 87.0, 84.0, 52.0, 32.0, 23.0, 21.0, 16.0, 9.0, 8.0, 8.0, 4.0, 8.0, 0.0, 0.0, 0.0, 1.0], "bins": [-2080.0, -2016.9375, -1953.875, -1890.8125, -1827.75, -1764.6875, -1701.625, -1638.5625, -1575.5, -1512.4375, -1449.375, -1386.3125, -1323.25, -1260.1875, -1197.125, -1134.0625, -1071.0, -1007.9375, -944.875, -881.8125, -818.75, -755.6875, -692.625, -629.5625, -566.5, -503.4375, -440.375, -377.3125, -314.25, -251.1875, -188.125, -125.0625, -62.0, 1.0625, 64.125, 127.1875, 190.25, 253.3125, 316.375, 379.4375, 442.5, 505.5625, 568.625, 631.6875, 694.75, 757.8125, 820.875, 883.9375, 947.0, 1010.0625, 1073.125, 1136.1875, 1199.25, 1262.3125, 1325.375, 1388.4375, 1451.5, 1514.5625, 1577.625, 1640.6875, 1703.75, 1766.8125, 1829.875, 1892.9375, 1956.0]}, "gradients/encoder.sequential.2.0.bias": {"_type": "histogram", "values": [1.0, 0.0, 0.0, 1.0, 0.0, 1.0, 2.0, 3.0, 1.0, 2.0, 0.0, 0.0, 2.0, 1.0, 2.0, 2.0, 1.0, 3.0, 3.0, 4.0, 1.0, 2.0, 3.0, 4.0, 2.0, 0.0, 4.0, 1.0, 6.0, 4.0, 5.0, 2.0, 4.0, 7.0, 3.0, 4.0, 4.0, 1.0, 3.0, 3.0, 0.0, 3.0, 5.0, 2.0, 1.0, 4.0, 3.0, 1.0, 2.0, 2.0, 3.0, 3.0, 1.0, 1.0, 0.0, 2.0, 1.0, 0.0, 0.0, 0.0, 0.0, 0.0, 1.0, 1.0], "bins": [-0.1651611328125, -0.16018295288085938, -0.15520477294921875, -0.15022659301757812, -0.1452484130859375, -0.14027023315429688, -0.13529205322265625, -0.13031387329101562, -0.125335693359375, -0.12035751342773438, -0.11537933349609375, -0.11040115356445312, -0.1054229736328125, -0.10044479370117188, -0.09546661376953125, -0.09048843383789062, -0.08551025390625, -0.08053207397460938, -0.07555389404296875, -0.07057571411132812, -0.0655975341796875, -0.060619354248046875, -0.05564117431640625, -0.050662994384765625, -0.045684814453125, -0.040706634521484375, -0.03572845458984375, -0.030750274658203125, -0.0257720947265625, -0.020793914794921875, -0.01581573486328125, -0.010837554931640625, -0.005859375, -0.000881195068359375, 0.00409698486328125, 0.009075164794921875, 0.0140533447265625, 0.019031524658203125, 0.02400970458984375, 0.028987884521484375, 0.033966064453125, 0.038944244384765625, 0.04392242431640625, 0.048900604248046875, 0.0538787841796875, 0.058856964111328125, 0.06383514404296875, 0.06881332397460938, 0.07379150390625, 0.07876968383789062, 0.08374786376953125, 0.08872604370117188, 0.0937042236328125, 0.09868240356445312, 0.10366058349609375, 0.10863876342773438, 0.113616943359375, 0.11859512329101562, 0.12357330322265625, 0.12855148315429688, 0.1335296630859375, 0.13850784301757812, 0.14348602294921875, 0.14846420288085938, 0.1534423828125]}, "gradients/encoder.sequential.1.1.weight": {"_type": "histogram", "values": [1.0, 0.0, 0.0, 0.0, 0.0, 0.0, 0.0, 0.0, 0.0, 0.0, 0.0, 1.0, 0.0, 0.0, 0.0, 0.0, 0.0, 0.0, 0.0, 0.0, 0.0, 0.0, 0.0, 1.0, 0.0, 0.0, 1.0, 5.0, 2.0, 0.0, 4.0, 4.0, 4.0, 1.0, 1.0, 0.0, 2.0, 3.0, 8.0, 5.0, 11.0, 3.0, 5.0, 6.0, 12.0, 7.0, 6.0, 2.0, 6.0, 6.0, 1.0, 2.0, 2.0, 2.0, 0.0, 2.0, 2.0, 2.0, 1.0, 2.0, 0.0, 1.0, 3.0, 1.0], "bins": [-860.5033569335938, -840.2811279296875, -820.0588989257812, -799.8366088867188, -779.6143798828125, -759.3921508789062, -739.169921875, -718.9476928710938, -698.7254638671875, -678.5032348632812, -658.281005859375, -638.0587158203125, -617.8364868164062, -597.6142578125, -577.3920288085938, -557.1697998046875, -536.947509765625, -516.7252807617188, -496.5030212402344, -476.2807922363281, -456.05853271484375, -435.8363037109375, -415.61407470703125, -395.391845703125, -375.1695861816406, -354.9473571777344, -334.72509765625, -314.50286865234375, -294.2806396484375, -274.0583801269531, -253.83615112304688, -233.61390686035156, -213.3917236328125, -193.1694793701172, -172.94723510742188, -152.72500610351562, -132.5027618408203, -112.280517578125, -92.05828094482422, -71.83604431152344, -51.613800048828125, -31.391559600830078, -11.169319152832031, 9.052921295166016, 29.275161743164062, 49.497406005859375, 69.71964263916016, 89.94187927246094, 110.16412353515625, 130.38636779785156, 150.60861206054688, 170.83084106445312, 191.05308532714844, 211.27532958984375, 231.49755859375, 251.7198028564453, 271.9420471191406, 292.1642761230469, 312.38653564453125, 332.6087646484375, 352.83099365234375, 373.0532531738281, 393.2754821777344, 413.49774169921875, 433.719970703125]}, "gradients/encoder.sequential.1.1.bias": {"_type": "histogram", "values": [1.0, 0.0, 0.0, 0.0, 0.0, 0.0, 0.0, 0.0, 0.0, 0.0, 0.0, 4.0, 0.0, 0.0, 1.0, 0.0, 0.0, 0.0, 0.0, 0.0, 4.0, 2.0, 3.0, 7.0, 1.0, 1.0, 3.0, 5.0, 3.0, 2.0, 7.0, 3.0, 5.0, 5.0, 5.0, 5.0, 1.0, 4.0, 4.0, 8.0, 3.0, 2.0, 3.0, 3.0, 3.0, 1.0, 0.0, 5.0, 1.0, 3.0, 3.0, 0.0, 3.0, 1.0, 1.0, 4.0, 1.0, 1.0, 0.0, 1.0, 0.0, 2.0, 1.0, 2.0], "bins": [-249.52333068847656, -242.68295288085938, -235.84259033203125, -229.00221252441406, -222.16184997558594, -215.32147216796875, -208.48110961914062, -201.64073181152344, -194.8003692626953, -187.95999145507812, -181.11962890625, -174.2792510986328, -167.4388885498047, -160.5985107421875, -153.75814819335938, -146.9177703857422, -140.077392578125, -133.2370147705078, -126.39665222167969, -119.55628204345703, -112.71591186523438, -105.87553405761719, -99.03517150878906, -92.19479370117188, -85.35443115234375, -78.5140609741211, -71.67369079589844, -64.83332061767578, -57.992950439453125, -51.1525764465332, -44.31220626831055, -37.47183609008789, -30.6314697265625, -23.791099548339844, -16.950729370117188, -10.110357284545898, -3.269987106323242, 3.570384979248047, 10.410755157470703, 17.25112533569336, 24.091495513916016, 30.931865692138672, 37.77223587036133, 44.61260986328125, 51.452980041503906, 58.29335021972656, 65.13372039794922, 71.97409057617188, 78.81446075439453, 85.65483093261719, 92.49520111083984, 99.3355712890625, 106.17594146728516, 113.01631164550781, 119.856689453125, 126.69705200195312, 133.5374298095703, 140.3778076171875, 147.21817016601562, 154.0585479736328, 160.89891052246094, 167.73928833007812, 174.57965087890625, 181.42002868652344, 188.26039123535156]}, "gradients/encoder.sequential.1.0.weight": {"_type": "histogram", "values": [2.0, 0.0, 1.0, 1.0, 7.0, 7.0, 18.0, 36.0, 25.0, 50.0, 79.0, 119.0, 166.0, 202.0, 208.0, 260.0, 294.0, 329.0, 418.0, 566.0, 640.0, 781.0, 1180.0, 1449.0, 1920.0, 2480.0, 2994.0, 3736.0, 4570.0, 4876.0, 4414.0, 3622.0, 3025.0, 2499.0, 1925.0, 1400.0, 1208.0, 919.0, 716.0, 492.0, 313.0, 228.0, 187.0, 167.0, 142.0, 91.0, 73.0, 58.0, 44.0, 29.0, 22.0, 25.0, 21.0, 24.0, 26.0, 28.0, 14.0, 11.0, 9.0, 1.0, 2.0, 1.0, 1.0, 1.0], "bins": [-1779.0, -1718.640625, -1658.28125, -1597.921875, -1537.5625, -1477.203125, -1416.84375, -1356.484375, -1296.125, -1235.765625, -1175.40625, -1115.046875, -1054.6875, -994.328125, -933.96875, -873.609375, -813.25, -752.890625, -692.53125, -632.171875, -571.8125, -511.453125, -451.09375, -390.734375, -330.375, -270.015625, -209.65625, -149.296875, -88.9375, -28.578125, 31.78125, 92.140625, 152.5, 212.859375, 273.21875, 333.578125, 393.9375, 454.296875, 514.65625, 575.015625, 635.375, 695.734375, 756.09375, 816.453125, 876.8125, 937.171875, 997.53125, 1057.890625, 1118.25, 1178.609375, 1238.96875, 1299.328125, 1359.6875, 1420.046875, 1480.40625, 1540.765625, 1601.125, 1661.484375, 1721.84375, 1782.203125, 1842.5625, 1902.921875, 1963.28125, 2023.640625, 2084.0]}, "gradients/encoder.sequential.1.0.bias": {"_type": "histogram", "values": [1.0, 0.0, 0.0, 0.0, 0.0, 0.0, 0.0, 0.0, 0.0, 0.0, 0.0, 0.0, 0.0, 0.0, 0.0, 0.0, 0.0, 0.0, 0.0, 0.0, 0.0, 0.0, 0.0, 0.0, 0.0, 0.0, 0.0, 0.0, 1.0, 0.0, 0.0, 0.0, 0.0, 0.0, 0.0, 0.0, 0.0, 0.0, 0.0, 0.0, 0.0, 0.0, 0.0, 0.0, 1.0, 1.0, 4.0, 2.0, 3.0, 5.0, 8.0, 10.0, 8.0, 19.0, 21.0, 8.0, 7.0, 13.0, 5.0, 5.0, 2.0, 1.0, 2.0, 1.0], "bins": [-1.4365234375, -1.4099693298339844, -1.3834152221679688, -1.3568611145019531, -1.3303070068359375, -1.3037528991699219, -1.2771987915039062, -1.2506446838378906, -1.224090576171875, -1.1975364685058594, -1.1709823608398438, -1.1444282531738281, -1.1178741455078125, -1.0913200378417969, -1.0647659301757812, -1.0382118225097656, -1.01165771484375, -0.9851036071777344, -0.9585494995117188, -0.9319953918457031, -0.9054412841796875, -0.8788871765136719, -0.8523330688476562, -0.8257789611816406, -0.799224853515625, -0.7726707458496094, -0.7461166381835938, -0.7195625305175781, -0.6930084228515625, -0.6664543151855469, -0.6399002075195312, -0.6133460998535156, -0.5867919921875, -0.5602378845214844, -0.5336837768554688, -0.5071296691894531, -0.4805755615234375, -0.4540214538574219, -0.42746734619140625, -0.4009132385253906, -0.374359130859375, -0.3478050231933594, -0.32125091552734375, -0.2946968078613281, -0.2681427001953125, -0.24158859252929688, -0.21503448486328125, -0.18848037719726562, -0.16192626953125, -0.13537216186523438, -0.10881805419921875, -0.08226394653320312, -0.0557098388671875, -0.029155731201171875, -0.00260162353515625, 0.023952484130859375, 0.050506591796875, 0.07706069946289062, 0.10361480712890625, 0.13016891479492188, 0.1567230224609375, 0.18327713012695312, 0.20983123779296875, 0.23638534545898438, 0.262939453125]}, "gradients/encoder.sequential.0.1.weight": {"_type": "histogram", "values": [1.0, 0.0, 0.0, 0.0, 0.0, 0.0, 0.0, 0.0, 0.0, 0.0, 0.0, 0.0, 0.0, 1.0, 0.0, 1.0, 1.0, 1.0, 2.0, 3.0, 1.0, 1.0, 4.0, 1.0, 4.0, 2.0, 5.0, 5.0, 6.0, 5.0, 2.0, 5.0, 1.0, 3.0, 4.0, 5.0, 6.0, 7.0, 5.0, 8.0, 4.0, 1.0, 2.0, 6.0, 2.0, 6.0, 1.0, 0.0, 4.0, 1.0, 1.0, 2.0, 0.0, 4.0, 0.0, 1.0, 0.0, 0.0, 1.0, 0.0, 1.0, 0.0, 0.0, 1.0], "bins": [-660.880615234375, -642.1419677734375, -623.4033203125, -604.6646728515625, -585.926025390625, -567.1873779296875, -548.44873046875, -529.7100830078125, -510.971435546875, -492.2327880859375, -473.494140625, -454.7554931640625, -436.016845703125, -417.2781982421875, -398.53955078125, -379.8009033203125, -361.062255859375, -342.3236083984375, -323.5849609375, -304.8463134765625, -286.107666015625, -267.3690185546875, -248.63037109375, -229.8917236328125, -211.153076171875, -192.4144287109375, -173.67578125, -154.9371337890625, -136.198486328125, -117.4598388671875, -98.72119140625, -79.9825439453125, -61.24383544921875, -42.50518798828125, -23.76654052734375, -5.02789306640625, 13.71075439453125, 32.44940185546875, 51.18804931640625, 69.92669677734375, 88.66534423828125, 107.40399169921875, 126.14263916015625, 144.88128662109375, 163.61993408203125, 182.35858154296875, 201.09722900390625, 219.83587646484375, 238.57452392578125, 257.31317138671875, 276.05181884765625, 294.79046630859375, 313.52911376953125, 332.26776123046875, 351.00640869140625, 369.74505615234375, 388.48370361328125, 407.22235107421875, 425.96099853515625, 444.69964599609375, 463.43829345703125, 482.17694091796875, 500.91558837890625, 519.6542358398438, 538.3928833007812]}, "gradients/encoder.sequential.0.1.bias": {"_type": "histogram", "values": [1.0, 0.0, 0.0, 0.0, 0.0, 0.0, 0.0, 0.0, 0.0, 1.0, 1.0, 2.0, 3.0, 0.0, 1.0, 3.0, 1.0, 2.0, 2.0, 1.0, 4.0, 6.0, 2.0, 4.0, 2.0, 5.0, 2.0, 5.0, 4.0, 5.0, 3.0, 7.0, 1.0, 5.0, 3.0, 5.0, 4.0, 7.0, 2.0, 3.0, 4.0, 0.0, 5.0, 2.0, 2.0, 4.0, 3.0, 1.0, 3.0, 1.0, 0.0, 1.0, 2.0, 0.0, 1.0, 0.0, 0.0, 0.0, 0.0, 0.0, 1.0, 0.0, 0.0, 1.0], "bins": [-363.9139404296875, -352.6985168457031, -341.48309326171875, -330.2677001953125, -319.0522766113281, -307.83685302734375, -296.6214599609375, -285.4060363769531, -274.19061279296875, -262.9751892089844, -251.75978088378906, -240.54437255859375, -229.32894897460938, -218.113525390625, -206.8981170654297, -195.68270874023438, -184.46728515625, -173.25186157226562, -162.0364532470703, -150.821044921875, -139.60562133789062, -128.39019775390625, -117.17478942871094, -105.9593734741211, -94.74395751953125, -83.5285415649414, -72.31312561035156, -61.09770965576172, -49.882293701171875, -38.66687774658203, -27.451461791992188, -16.236045837402344, -5.020599365234375, 6.194816589355469, 17.410232543945312, 28.625648498535156, 39.841064453125, 51.056480407714844, 62.27189636230469, 73.48731231689453, 84.70272827148438, 95.91814422607422, 107.13356018066406, 118.3489761352539, 129.56439208984375, 140.77981567382812, 151.99522399902344, 163.21063232421875, 174.42605590820312, 185.6414794921875, 196.8568878173828, 208.07229614257812, 219.2877197265625, 230.50314331054688, 241.7185516357422, 252.9339599609375, 264.1493835449219, 275.36480712890625, 286.5802001953125, 297.7956237792969, 309.01104736328125, 320.2264709472656, 331.44189453125, 342.65728759765625, 353.8727111816406]}, "gradients/encoder.sequential.0.0.weight": {"_type": "histogram", "values": [1.0, 0.0, 0.0, 0.0, 1.0, 0.0, 0.0, 0.0, 0.0, 0.0, 1.0, 0.0, 1.0, 1.0, 3.0, 0.0, 4.0, 4.0, 3.0, 9.0, 5.0, 10.0, 16.0, 19.0, 56.0, 75.0, 73.0, 32.0, 13.0, 14.0, 14.0, 2.0, 7.0, 2.0, 3.0, 3.0, 3.0, 1.0, 0.0, 2.0, 0.0, 0.0, 0.0, 0.0, 2.0, 1.0, 0.0, 0.0, 0.0, 0.0, 0.0, 0.0, 0.0, 0.0, 0.0, 0.0, 0.0, 0.0, 0.0, 0.0, 0.0, 2.0, 0.0, 1.0], "bins": [-2580.0, -2479.15625, -2378.3125, -2277.46875, -2176.625, -2075.78125, -1974.9375, -1874.09375, -1773.25, -1672.40625, -1571.5625, -1470.71875, -1369.875, -1269.03125, -1168.1875, -1067.34375, -966.5, -865.65625, -764.8125, -663.96875, -563.125, -462.28125, -361.4375, -260.59375, -159.75, -58.90625, 41.9375, 142.78125, 243.625, 344.46875, 445.3125, 546.15625, 647.0, 747.84375, 848.6875, 949.53125, 1050.375, 1151.21875, 1252.0625, 1352.90625, 1453.75, 1554.59375, 1655.4375, 1756.28125, 1857.125, 1957.96875, 2058.8125, 2159.65625, 2260.5, 2361.34375, 2462.1875, 2563.03125, 2663.875, 2764.71875, 2865.5625, 2966.40625, 3067.25, 3168.09375, 3268.9375, 3369.78125, 3470.625, 3571.46875, 3672.3125, 3773.15625, 3874.0]}, "gradients/encoder.sequential.0.0.bias": {"_type": "histogram", "values": [1.0, 0.0, 0.0, 0.0, 0.0, 0.0, 0.0, 0.0, 0.0, 0.0, 0.0, 0.0, 0.0, 0.0, 0.0, 0.0, 0.0, 0.0, 0.0, 1.0, 0.0, 1.0, 0.0, 1.0, 0.0, 2.0, 0.0, 3.0, 3.0, 3.0, 7.0, 14.0, 16.0, 21.0, 23.0, 9.0, 8.0, 6.0, 2.0, 4.0, 1.0, 1.0, 0.0, 0.0, 0.0, 0.0, 0.0, 0.0, 0.0, 0.0, 0.0, 0.0, 0.0, 0.0, 0.0, 0.0, 0.0, 0.0, 0.0, 0.0, 0.0, 0.0, 0.0, 1.0], "bins": [-10.28125, -9.9759521484375, -9.670654296875, -9.3653564453125, -9.06005859375, -8.7547607421875, -8.449462890625, -8.1441650390625, -7.8388671875, -7.5335693359375, -7.228271484375, -6.9229736328125, -6.61767578125, -6.3123779296875, -6.007080078125, -5.7017822265625, -5.396484375, -5.0911865234375, -4.785888671875, -4.4805908203125, -4.17529296875, -3.8699951171875, -3.564697265625, -3.2593994140625, -2.9541015625, -2.6488037109375, -2.343505859375, -2.0382080078125, -1.73291015625, -1.4276123046875, -1.122314453125, -0.8170166015625, -0.51171875, -0.2064208984375, 0.098876953125, 0.4041748046875, 0.70947265625, 1.0147705078125, 1.320068359375, 1.6253662109375, 1.9306640625, 2.2359619140625, 2.541259765625, 2.8465576171875, 3.15185546875, 3.4571533203125, 3.762451171875, 4.0677490234375, 4.373046875, 4.6783447265625, 4.983642578125, 5.2889404296875, 5.59423828125, 5.8995361328125, 6.204833984375, 6.5101318359375, 6.8154296875, 7.1207275390625, 7.426025390625, 7.7313232421875, 8.03662109375, 8.3419189453125, 8.647216796875, 8.9525146484375, 9.2578125]}}